1
(10,40) 

0.08482904059071025 0.021097068778687847 0.04733434252441415 0.09090472554789167 0.008063636233793206 0.0005705096463002601 -0.09486097484119274 -0.00033415940774919606 0.08594996965521068 -0.05700098023029701 0.008426402402244751 -0.013328942676578914 -0.012236587560449472 -0.014600392886550281 -0.06553828682543335 0.03918819706787083 -0.07497261883987955 0.013109020537243388 0.04015697923025613 0.03610891787799739 0.021083576364225337 0.016983695343233518 0.04460833078398835 -0.03023818449847107 0.029994512729368872 0.015034651371929275 0.03559224191330157 -0.047608672693957944 -0.06247037662611912 0.09860220766224995 -0.0758153249794368 0.08773089386775029 -0.020355997291071917 -0.06911002676596366 0.03839881288715569 0.07123117591135653 0.09180325275031725 0.05212527741936809 0.0023646624771669345 -0.08880597693195869 
0.03866422509586975 0.06173621692703066 0.059173717244909746 -0.017416384330493334 -0.09665191802891036 -0.08966776023005761 -0.017888996733873563 -0.053689826159767765 0.09849639473085703 0.09311072359986716 0.06955793347035907 -0.06841339097698199 -0.01422074289868211 0.02057160991380684 -0.011856981139468842 0.028776714965174477 -0.035963098291057885 0.06452818910235511 0.06022535988866459 0.04148225333036226 -0.001532079980575446 0.0944254567551944 0.056963588503719326 0.09019717464765795 0.01910411981649865 0.09482590479057418 -0.06746355527762529 -0.04846882703242925 -0.06800947862572529 0.09438643494192622 -0.06950157200502556 -0.038920106285139824 0.0879547456094858 0.07911469107097 -0.01840162096038775 0.09333594270723239 -0.052566238945550174 0.028450348833496147 0.05863342494967777 -0.06862216210188928 
-0.005076641365326776 -0.04165602755405669 -0.05399524329561487 -0.09915226667242144 -0.011566223569299261 -0.0638021038170978 -0.009195774404375648 -0.04210167095718009 -0.06607685982973216 -0.01801128329334971 -0.059698169481755395 0.008088153999808195 -0.07499187669201655 -0.05711007850368464 0.06346706117032677 0.07054252251042156 -0.002500616675276679 -0.03215696515357247 -0.05685938305518732 0.08186270680094998 0.07775611426497214 0.028632169094897325 -0.09614650209450126 -0.09054049390540085 -0.05631486804030259 0.04802623139182105 0.07085214784485605 -0.0036592975200390176 -0.019333079036709624 -0.0818938654168317 0.031107500847271485 -0.003303204140396379 -0.025931226642976646 -0.060766231552399796 0.06442916126845141 -0.01525179383864636 0.008631839055637719 0.04312538033872787 0.030967746817920055 0.03543782300759818 
0.06772721089122632 0.01136409239977651 -0.05253067533641995 0.05678539906437616 -0.007793250986592115 0.02567862418270453 -0.039456679392882936 -0.02041273480906987 0.04750308239399109 -0.035460001377581984 0.083736665699879 0.09381014056583567 0.09107957615660522 -0.0109743098077629 0.04584881695588422 0.038161578562401516 0.0027870274506904824 -0.09847045719682285 0.045215322303133826 0.0824902375975505 0.06542595921430014 -0.08217582048527157 -0.06166177059413269 0.004538374502013262 -0.006275261299924256 0.016891879391516817 -0.09715397697803643 -0.0037914880751209468 0.008436958777585282 0.08965471415270482 -0.070684124132196 0.09646551693479971 0.037442942807309865 -0.007307118445359556 -0.0852517045352752 -0.037393244240961174 0.08244380006257582 0.05165940899461943 0.05848911691205286 0.07217986066548929 
-0.06920615351436393 -0.013744311559524422 0.012140771140005405 -0.021336432627054508 0.028861115968734696 0.04498082279797583 0.048782114284868894 -0.07407692073349997 0.07124773624000114 -0.06344133424624898 0.016199324910330576 0.0036580157808880492 -0.06271288773969816 -0.033038374501308684 -0.02620259916691421 -0.0425886996396889 -0.0718430656475026 0.07996617044545504 0.09915661093251665 -0.04888029668944336 0.09832920170145484 0.00035452917080344704 0.0441814905844001 -0.08287741348954653 -0.07114647643727444 0.03498393029674443 -0.04116044801704553 -0.06294646393453229 0.02127159380170622 -0.010482054184662568 -0.005720894686356767 0.05898272043059122 0.02832886440287613 -0.03933809066689196 0.024372070336608154 0.08997148912882111 0.09441814697070441 0.01939469622548129 -0.06915229472849438 0.09542683882711589 
0.019326144404506265 0.00844429154332424 0.006264499097442269 -0.0403229892241723 -0.01606048940501706 -0.020471112794039237 -0.08730896633436298 -0.06104865024590851 0.0718827613563747 0.06779710924284021 -0.09209789131057843 0.00685842695507928 -0.02147080655300533 -0.048533708385585086 -0.05413210330188898 0.003938597345496328 0.09269930215487282 -0.055305444412616867 -0.0848574515427282 0.06659733914426566 0.029803933370451813 -0.06273476625276997 -0.04704589065326388 -0.024337927217775432 0.05758671506884738 0.0633737044202407 0.09113286727728365 0.033757500763687054 0.07204684236026968 0.04833228692584918 0.034282282235986006 -0.03463841956992944 -0.08260642118817946 0.0840057076672768 -0.010816935476425787 0.081391395781613 0.08532497001957859 0.021544162274411513 0.09619744373588526 -0.025815467137177597 
-0.021615668389820403 0.09984095698470072 -0.09616839103574185 0.08126568284979052 0.05106194194471908 -0.09728089441691759 -0.04926029166517605 0.08127731584776016 -0.019852526391425512 -0.027969140205217485 -0.00989770162266998 0.030524037598716303 -0.024786886882649184 0.009559548927038211 -0.09448973083331454 0.09200574466563041 0.06974547949076518 -0.0931931561445067 -0.047860732810609034 0.04494916335809587 0.04727578647071318 0.060333550822391085 -0.060015678241759754 0.00499032667309722 -0.09564340200938592 0.02013501185646631 0.05293596268316428 0.03257390482972827 0.08600221530742638 0.0417133978683594 -0.09345774257449072 0.04686311256066139 -0.09907088700491971 -0.08139116376171869 -0.05262808038740947 0.019139191739233508 -0.04200051580497961 -0.05383105017318793 0.00780099760334467 0.0937405018455581 
-0.08871458878056866 0.0874144584677819 -0.05722504018857653 -0.06686580461096175 -0.0779135638249931 -0.05018855513260994 0.006562036137649788 0.05792092267111948 -0.05570686127237752 -0.028670792643399043 0.0523956146992893 -0.03251198763199496 -0.0751908027979108 -0.007429101747594105 0.08196169396863004 0.07228874723502904 -0.06786433216742656 0.06359425543883448 -0.09929063253581659 -0.08887709366654517 0.06587038036342638 -0.020945001410973038 0.09211062766935707 -0.044520520064561 -0.039454507895066396 0.015759946158759155 0.02352218212905957 -0.006359439555346416 0.011850310879921652 -0.04104593232165781 0.036190957435871474 -0.011057134191007692 0.08731467337660845 0.042123249366745136 0.09537335129898791 -0.05358648346616286 -0.07950147449071177 -0.032082601127129975 0.04816043421425911 0.08600900268368594 
0.0592613267670338 0.029394399592394815 0.06690649418521802 0.07741632924913866 -0.07105647246433092 0.036359223047275846 -0.02450619369328763 -0.07002955624831331 0.06764170808090939 0.08274318524893834 -0.04254559603334003 0.051371986360647715 -0.08891106658093557 -0.053436355174142386 0.009767692879373693 0.040874340013710875 0.06328351612166674 -0.029146034815252353 0.04263742185191893 -0.07047069666152135 0.06396236993354976 0.03982458364148228 -0.08196628720533237 0.020324407572509973 0.044348535840800396 0.09359072043892752 -0.09325284820141287 -0.011090947763330236 -0.011883202447918323 -0.004916210682201605 0.00029368112564169546 0.010273076435701994 0.007693814629668491 0.04503287664521613 -0.008621489451456535 0.04345197103111559 0.09269203740041335 -0.02900738185964573 0.09754658813904724 -0.09587096515721233 
0.08672073138094435 0.04247321256484976 -0.08612036954791602 -0.0770081002711214 -0.05253615036435382 0.022049554716803588 -0.07421345763983916 0.08354917448724455 -0.0801019067179552 0.07593537532337816 -0.07002257458079869 -0.04160596441601949 0.08282416145937052 0.013177065276854541 0.040262145117055254 0.06467105573070617 0.09663764830433766 0.07350869179384428 0.08204411580154078 0.07658378691012618 -0.059828506838509245 0.06927477013212263 0.010168116100355215 0.06535577571738221 0.09853842107445174 0.0509299742863796 0.035586260153468385 0.06322539492505491 0.0853806602943133 -0.006779352544594358 -0.025342136912443136 0.05868153446456603 0.09538762058246752 0.07671938563288602 -0.07062950571984541 0.017920209466190218 -0.08917405005999553 -0.006207989685310195 -0.09846578619421227 -0.057930872773623014 

